|--- relative_position <= 0.964071
|   |--- word_sentence_frequency >  7417.000000
|   |   |--- relative_position >  0.827381
|   |   |   |   |--- class: 1

|--- relative_position >  0.964071
|   |--- token_rank <= 1.500000
|   |   |--- prev_pos_id <= 2.500000
|   |   |   |--- word_burstiness >  -0.907070
|   |   |   |   |--- class: 1

|--- relative_position >  0.964071
|   |--- token_rank <= 1.500000
|   |   |--- prev_pos_id >  2.500000
|   |   |   |--- word_sentence_frequency >  151.000000
|   |   |   |   |--- class: 1

|--- relative_position >  0.964071
|   |--- token_rank >  1.500000
|   |   |--- position_in_sentence <= 51.500000
|   |   |   |--- position_in_sentence <= 33.500000
|   |   |   |   |--- class: 1

|--- relative_position >  0.964071
|   |--- token_rank >  1.500000
|   |   |--- position_in_sentence >  51.500000
|   |   |   |--- depth_in_tree <= 1.500000
|   |   |   |   |--- class: 1