|--- position_in_sentence <= 1.500000
|   |--- relative_position <= 0.057190
|   |   |--- word_sentence_frequency <= 424.500000
|   |   |   |--- token_rank <= 231.500000
|   |   |   |   |--- class: 1

|--- position_in_sentence <= 1.500000
|   |--- relative_position <= 0.057190
|   |   |--- word_sentence_frequency >  424.500000
|   |   |   |--- token_length <= 1.500000
|   |   |   |   |--- class: 1

|--- position_in_sentence <= 1.500000
|   |--- relative_position <= 0.057190
|   |   |--- word_sentence_frequency >  424.500000
|   |   |   |--- token_length >  1.500000
|   |   |   |   |--- class: 1

|--- position_in_sentence <= 1.500000
|   |--- relative_position >  0.057190
|   |   |--- word_sentence_frequency <= 47.000000
|   |   |   |--- relative_position <= 0.074176
|   |   |   |   |--- class: 1

|--- position_in_sentence <= 1.500000
|   |--- relative_position >  0.057190
|   |   |--- word_sentence_frequency <= 47.000000
|   |   |   |--- relative_position >  0.074176
|   |   |   |   |--- class: 1

|--- position_in_sentence <= 1.500000
|   |--- relative_position >  0.057190
|   |   |--- word_sentence_frequency >  47.000000
|   |   |   |--- token_relative_frequency <= 0.069048
|   |   |   |   |--- class: 1

|--- position_in_sentence <= 1.500000
|   |--- relative_position >  0.057190
|   |   |--- word_sentence_frequency >  47.000000
|   |   |   |--- token_relative_frequency >  0.069048
|   |   |   |   |--- class: 1

|--- position_in_sentence >  1.500000
|   |--- token_relative_frequency >  0.055337
|   |   |--- dep_id <= 0.500000
|   |   |   |--- position_in_sentence <= 7.500000
|   |   |   |   |--- class: 1