|--- position_in_sentence <= 19.500000
|   |--- relative_position >  0.299123
|   |   |--- word_sentence_frequency <= 5268.500000
|   |   |   |--- word_sentence_frequency >  4012.000000
|   |   |   |   |--- class: 1

|--- position_in_sentence >  19.500000
|   |--- position_in_sentence >  27.500000
|   |   |--- position_in_sentence <= 30.500000
|   |   |   |--- position_in_sentence >  29.500000
|   |   |   |   |--- class: 1