|--- relative_position <= 0.964071
|   |--- word_sentence_frequency >  7417.000000
|   |   |--- relative_position <= 0.929803
|   |   |   |--- relative_position >  0.827381
|   |   |   |   |--- class: 1

|--- relative_position <= 0.964071
|   |--- word_sentence_frequency >  7417.000000
|   |   |--- relative_position >  0.929803
|   |   |   |   |--- class: 1

|--- relative_position >  0.964071
|   |--- token_rank <= 1.500000
|   |   |--- num_subtokens <= 1.500000
|   |   |   |   |--- class: 1

|--- relative_position >  0.964071
|   |--- token_rank >  1.500000
|   |   |--- position_in_sentence <= 35.500000
|   |   |   |--- word_sentence_frequency <= 82.000000
|   |   |   |   |--- class: 1