|--- dep_id <= -0.500000
|   |--- position_in_sentence <= 48.500000
|   |   |--- position_in_sentence <= 28.500000
|   |   |   |--- position_in_sentence <= 23.500000
|   |   |   |   |--- class: 1

|--- dep_id <= -0.500000
|   |--- position_in_sentence <= 48.500000
|   |   |--- position_in_sentence <= 28.500000
|   |   |   |--- position_in_sentence >  23.500000
|   |   |   |   |--- class: 1

|--- dep_id <= -0.500000
|   |--- position_in_sentence <= 48.500000
|   |   |--- position_in_sentence >  28.500000
|   |   |   |--- position_in_sentence <= 43.500000
|   |   |   |   |--- class: 1

|--- dep_id <= -0.500000
|   |--- position_in_sentence <= 48.500000
|   |   |--- position_in_sentence >  28.500000
|   |   |   |--- position_in_sentence >  43.500000
|   |   |   |   |--- class: 1

|--- dep_id <= -0.500000
|   |--- position_in_sentence >  48.500000
|   |   |--- position_in_sentence <= 63.500000
|   |   |   |--- position_in_sentence <= 58.500000
|   |   |   |   |--- class: 1

|--- dep_id >  -0.500000
|   |--- token_length <= 5.500000
|   |   |--- word_sentence_frequency >  7417.000000
|   |   |   |--- position_in_sentence <= 18.500000
|   |   |   |   |--- class: 1