|--- next_pos_id <= -0.500000
|   |--- num_subtokens <= 1.500000
|   |   |--- token_rank <= 1.500000
|   |   |   |   |--- class: 1

|--- next_pos_id <= -0.500000
|   |--- num_subtokens <= 1.500000
|   |   |--- token_rank >  1.500000
|   |   |   |--- position_in_sentence <= 22.500000
|   |   |   |   |--- class: 1

|--- next_pos_id <= -0.500000
|   |--- num_subtokens >  1.500000
|   |   |--- token_relative_frequency >  0.046693
|   |   |   |--- relative_position >  0.983739
|   |   |   |   |--- class: 1