|--- next_pos_id <= -0.500000
|   |--- relative_position <= 0.898276
|   |   |--- num_subtokens <= 1.500000
|   |   |   |   |--- class: 1

|--- next_pos_id <= -0.500000
|   |--- relative_position >  0.898276
|   |   |--- num_subtokens <= 1.500000
|   |   |   |   |--- class: 1

|--- next_pos_id <= -0.500000
|   |--- relative_position >  0.898276
|   |   |--- num_subtokens >  1.500000
|   |   |   |--- position_in_sentence <= 26.500000
|   |   |   |   |--- class: 1

|--- next_pos_id >  -0.500000
|   |--- position_in_sentence <= 1.500000
|   |   |--- relative_position >  0.051316
|   |   |   |--- word_sentence_frequency >  1524.500000
|   |   |   |   |--- class: 1